{
  "type": "logreg_numpy",
  "feature_cols": [
    "entropy",
    "brightness_mean",
    "brightness_std",
    "skewness_brightness",
    "kurtosis_brightness",
    "laplacian_variance",
    "gradient_mean",
    "gradient_variance",
    "edge_density",
    "hf_energy_ratio",
    "spectral_slope",
    "spectral_flatness",
    "fft_phase_entropy",
    "freq_lf",
    "freq_mf",
    "freq_hf",
    "dct_energy_ratio",
    "jpeg_artifact_score",
    "stripe_score",
    "lbp_entropy",
    "glcm_contrast",
    "glcm_homogeneity",
    "glcm_energy",
    "noise_entropy",
    "residual_std",
    "noise_variance_patch_std",
    "saturation_mean",
    "hue_entropy",
    "rgb_channel_corr",
    "colorfulness",
    "gray_world_error",
    "compression_ratio"
  ],
  "mu": [
    7.433376012501557,
    0.4361149664958122,
    0.23570126328291086,
    0.19538218052256504,
    -0.4030313715464435,
    1120.011867204272,
    66.25943246555835,
    9250.811648090907,
    0.09293215914489292,
    0.014117662457807276,
    3.3347635588198528,
    0.0027007612201525237,
    7.9933439018627155,
    0.9676499023627982,
    0.024613639954994385,
    0.007736460432554067,
    0.0005765311913989245,
    1.0022487002125273,
    0.025478912114014197,
    6.34053440492559,
    0.8505988497312172,
    0.8383002987873512,
    0.07298551518939886,
    4.754850833729229,
    0.03357057957244655,
    0.0015067185898237263,
    0.2997500878859866,
    5.25934476072008,
    0.9142165796974622,
    36.88728633804235,
    0.1024121323915492,
    0.7417537627203404
  ],
  "sg": [
    0.41314035178801456,
    0.09910401498587328,
    0.048741342502044,
    0.647428181405778,
    2.2242881517403763,
    1478.2541129558317,
    29.22782436293728,
    6191.557608067219,
    0.05654713341798401,
    0.013093960551670236,
    0.4512601998473908,
    0.003451242264335729,
    0.001364201928182884,
    0.023345805261813284,
    0.017010535906978836,
    0.008353158665251369,
    0.0019447227102593427,
    0.02553114234332375,
    0.016430377130196426,
    0.4076025105541714,
    0.5300138682570956,
    0.05818060278859565,
    0.05471118893683767,
    0.7289643395217881,
    0.01590069714945283,
    0.001236745641154972,
    0.14244075508397527,
    1.0612557644657055,
    0.09171816188060682,
    19.625650364336092,
    0.07901287421093627,
    0.10684459105243396
  ],
  "w": [
    1.0919832821285185,
    -0.49612593828873214,
    0.41261241973701873,
    -0.16702957243456365,
    -0.3099956841378417,
    -0.5427322831420189,
    0.2711298340025442,
    0.17318959129767572,
    -0.2372753913615093,
    -0.3628979064640504,
    -2.1130370575593442,
    0.0892483859080733,
    0.23427274316296123,
    -0.30043974461608286,
    0.7602805251142994,
    -0.6746605036054757,
    -0.4447321616208214,
    0.07217843414218413,
    -0.48191866232128694,
    -1.1341540345917174,
    0.22385043523378043,
    -0.30749804542935666,
    -0.5109519428730249,
    0.5362637313977952,
    -0.9287308106646879,
    -0.6391879042781388,
    0.1414093329932826,
    -0.16314627111603577,
    0.3532938124085471,
    -0.3488837080859737,
    -0.11172216032456976,
    -0.963927435430094
  ],
  "b": -0.2935174515526614,
  "threshold": 0.5,
  "z_clip": 6.0,
  "sg_floor": 0.001
}